{
    "cells": [
        {
            "language": "typescript",
            "source": [
                "const tfvis = require('@tensorflow/tfjs-vis') as typeof import('@tensorflow/tfjs-vis');\nconst tf = require('@tensorflow/tfjs-node') as typeof import('@tensorflow/tfjs-node');"
            ],
            "outputs": [
                {
                    "items": [
                        {
                            "mime": "application/vnd.code.notebook.stderr",
                            "value": [
                                "Platform node has already been set. Overwriting the platform with [object Object].",
                                "node-pre-gyp info This Node instance does not support builds for Node-API version 8",
                                "node-pre-gyp info This Node instance does not support builds for Node-API version 8",
                                "2021-08-31 16:24:41.655493: I tensorflow/core/platform/cpu_feature_guard.cc:142] This TensorFlow binary is optimized with oneAPI Deep Neural Network Library (oneDNN) to use the following CPU instructions in performance-critical operations:  SSE4.2",
                                "To enable them in other operations, rebuild TensorFlow with the appropriate compiler flags.",
                                ""
                            ]
                        }
                    ]
                }
            ]
        },
        {
            "language": "markdown",
            "source": [
                "# Values Distribution"
            ],
            "outputs": []
        },
        {
            "language": "javascript",
            "source": [
                "const tensor = tf.tensor1d([0, 0, 0, 0, 2, 3, 4]);\n\nconst surface = { name: 'Values Distribution', tab: 'Model Inspection' };\nawait tfvis.show.valuesDistribution(surface, tensor);\n"
            ],
            "outputs": [
                {
                    "items": [
                        {
                            "mime": "application/vnd.tfjsvis.valuesdistribution",
                            "value": {
                                "type": "tensorFlowVis",
                                "request": "valuesdistribution",
                                "container": {
                                    "name": "Values Distribution",
                                    "tab": "Model Inspection"
                                },
                                "requestId": "x8b6c432c5c584740af601d5260e637ac",
                                "tensor": {
                                    "stats": {
                                        "numVals": 7,
                                        "numZeros": 4,
                                        "numNans": 0,
                                        "min": 0,
                                        "max": 4,
                                        "numInfs": 0
                                    },
                                    "values": [
                                        0,
                                        0,
                                        0,
                                        0,
                                        2,
                                        3,
                                        4
                                    ]
                                }
                            }
                        }
                    ]
                }
            ]
        },
        {
            "language": "markdown",
            "source": [
                "# Per Class Accuracy"
            ],
            "outputs": []
        },
        {
            "language": "javascript",
            "source": [
                "const labels = tf.tensor1d([0, 0, 1, 2, 2, 2]);\nconst predictions = tf.tensor1d([0, 0, 0, 2, 1, 1]);\n\nconst result = await tfvis.metrics.perClassAccuracy(labels, predictions);\n\nconst container = { name: 'Per Class Accuracy', tab: 'Evaluation' };\nconst categories = ['cat', 'dog', 'mouse'];\nawait tfvis.show.perClassAccuracy(container, result, categories);\n"
            ],
            "outputs": [
                {
                    "items": [
                        {
                            "mime": "application/vnd.tfjsvis.perclassaccuracy",
                            "value": {
                                "type": "tensorFlowVis",
                                "request": "perclassaccuracy",
                                "requestId": "x8496b4b5ff204ce9b12bfa3248c8e2b5",
                                "container": {
                                    "name": "Per Class Accuracy",
                                    "tab": "Evaluation"
                                },
                                "classAccuracy": [
                                    {
                                        "count": 2,
                                        "accuracy": 1
                                    },
                                    {
                                        "count": 1,
                                        "accuracy": 0
                                    },
                                    {
                                        "count": 3,
                                        "accuracy": 0.3333333333333333
                                    }
                                ],
                                "classLabels": [
                                    "cat",
                                    "dog",
                                    "mouse"
                                ]
                            }
                        }
                    ]
                }
            ]
        },
        {
            "language": "markdown",
            "source": [
                "# Layer"
            ],
            "outputs": []
        },
        {
            "language": "javascript",
            "source": [
                "const model = tf.sequential({\n    layers: [\n        tf.layers.dense({ inputShape: [784], units: 32, activation: 'relu' }),\n        tf.layers.dense({ units: 10, activation: 'softmax' }),\n    ]\n});\n\nconst surface = { name: 'Layer Summary', tab: 'Model Inspection' };\ntfvis.show.layer(surface, model.getLayer(undefined, 1));\n"
            ],
            "outputs": [
                {
                    "items": [
                        {
                            "mime": "application/vnd.tfjsvis.layer",
                            "value": {
                                "type": "tensorFlowVis",
                                "request": "layer",
                                "requestId": "xd63de9c82dda48009a67f4ee904f1b01",
                                "container": {
                                    "name": "Layer Summary",
                                    "tab": "Model Inspection"
                                },
                                "layer": {
                                    "details": [
                                        {
                                            "name": "dense_Dense2/kernel",
                                            "stats": {
                                                "numVals": 320,
                                                "numZeros": 0,
                                                "numNans": 0,
                                                "min": -0.4257749021053314,
                                                "max": 0.4283609092235565,
                                                "numInfs": 0
                                            },
                                            "shape": "[32,10]",
                                            "weight": {
                                                "size": 320
                                            }
                                        },
                                        {
                                            "name": "dense_Dense2/bias",
                                            "stats": {
                                                "numVals": 10,
                                                "numZeros": 10,
                                                "numNans": 0,
                                                "min": 0,
                                                "max": 0,
                                                "numInfs": 0
                                            },
                                            "shape": "[10]",
                                            "weight": {
                                                "size": 10
                                            }
                                        }
                                    ],
                                    "weights": {
                                        "dense_Dense2/kernel": [
                                            -0.023965978994965553,
                                            0.3459988236427307,
                                            0.2192026674747467,
                                            -0.10912863910198212,
                                            0.06175895407795906,
                                            0.07255038619041443,
                                            0.3980353772640228,
                                            0.4164139926433563,
                                            0.07209769636392593,
                                            -0.07192692905664444,
                                            -0.2633909583091736,
                                            -0.047389764338731766,
                                            -0.10473889857530594,
                                            0.14357757568359375,
                                            -0.20038802921772003,
                                            -0.17557889223098755,
                                            0.0030051223002374172,
                                            0.17623652517795563,
                                            0.02684754505753517,
                                            -0.007908482104539871,
                                            0.3790953457355499,
                                            0.028935838490724564,
                                            0.022573819383978844,
                                            -0.1025601327419281,
                                            -0.4217269718647003,
                                            0.03963812440633774,
                                            0.0960150882601738,
                                            -0.07456004619598389,
                                            0.3520500361919403,
                                            0.06288797408342361,
                                            -0.09488833695650101,
                                            -0.20688360929489136,
                                            -0.24305236339569092,
                                            0.29318633675575256,
                                            -0.07482809573411942,
                                            -0.01860935054719448,
                                            0.10136617720127106,
                                            0.0437697097659111,
                                            0.24333758652210236,
                                            0.04864077270030975,
                                            0.3400496542453766,
                                            -0.20495569705963135,
                                            0.01451913546770811,
                                            0.04567563906311989,
                                            -0.22346770763397217,
                                            -0.011636604554951191,
                                            -0.013483339920639992,
                                            -0.01707150973379612,
                                            -0.3303402066230774,
                                            -0.16878105700016022,
                                            0.060754917562007904,
                                            0.08609616756439209,
                                            0.3764353096485138,
                                            0.11048188805580139,
                                            -0.09546433389186859,
                                            -0.05081598833203316,
                                            0.2140139788389206,
                                            0.04850984737277031,
                                            -0.11495178192853928,
                                            0.09738877415657043,
                                            0.3434125483036041,
                                            0.062413543462753296,
                                            -0.0904008150100708,
                                            -0.002528170356526971,
                                            0.06919211894273758,
                                            -0.39584383368492126,
                                            0.003569576423615217,
                                            0.030215678736567497,
                                            -0.049092043191194534,
                                            0.3447539508342743,
                                            0.18206308782100677,
                                            0.2060152143239975,
                                            -0.09051214903593063,
                                            -0.24773673713207245,
                                            -0.2961405813694,
                                            -0.11669473350048065,
                                            0.0015129299135878682,
                                            0.07356134802103043,
                                            0.19639670848846436,
                                            0.2884308099746704,
                                            0.27169492840766907,
                                            -0.0380445159971714,
                                            -0.13384397327899933,
                                            -0.26905468106269836,
                                            -0.02876407466828823,
                                            -0.06271815299987793,
                                            0.3257528245449066,
                                            0.10107123851776123,
                                            0.03331521153450012,
                                            0.0959310233592987,
                                            -0.04409068077802658,
                                            -0.25525766611099243,
                                            -0.31838250160217285,
                                            -0.1856955885887146,
                                            -0.01018438022583723,
                                            -0.10965366661548615,
                                            -0.08783427625894547,
                                            0.14244726300239563,
                                            -0.06183651462197304,
                                            -0.09046474099159241,
                                            -0.1532072126865387,
                                            -0.029028942808508873,
                                            0.099102683365345,
                                            0.3620542883872986,
                                            -0.2815486490726471,
                                            0.17232593894004822,
                                            -0.18008115887641907,
                                            -0.236816868185997,
                                            0.09674634784460068,
                                            0.027556700631976128,
                                            -0.11365357041358948,
                                            -0.20296263694763184,
                                            -0.28839072585105896,
                                            0.012559188529849052,
                                            0.206324964761734,
                                            -0.04029110446572304,
                                            -0.0149698406457901,
                                            -0.14531873166561127,
                                            0.1109495609998703,
                                            0.1866728514432907,
                                            -0.08161213248968124,
                                            -0.020137883722782135,
                                            0.0925765261054039,
                                            0.3127237856388092,
                                            0.031539056450128555,
                                            -0.3815127909183502,
                                            0.14717145264148712,
                                            -0.3402107059955597,
                                            -0.12295009940862656,
                                            -0.1731182038784027,
                                            0.013643047772347927,
                                            0.14480718970298767,
                                            -0.13196422159671783,
                                            -0.0923876240849495,
                                            0.290039598941803,
                                            0.18467840552330017,
                                            0.10742883384227753,
                                            -0.1374463587999344,
                                            -0.059034235775470734,
                                            -0.0019637360237538815,
                                            -0.18671318888664246,
                                            0.20587970316410065,
                                            0.09785033017396927,
                                            -0.05123979598283768,
                                            -0.02313169278204441,
                                            0.23311246931552887,
                                            0.13114073872566223,
                                            -0.2221997082233429,
                                            -0.06469164788722992,
                                            -0.05309508368372917,
                                            0.021831629797816277,
                                            -0.03761128708720207,
                                            -0.17409586906433105,
                                            -0.035151321440935135,
                                            0.037468794733285904,
                                            -0.23650094866752625,
                                            0.3295326232910156,
                                            0.13312816619873047,
                                            -0.3525749742984772,
                                            0.1901571899652481,
                                            0.07204321026802063,
                                            0.3599303066730499,
                                            0.046830542385578156,
                                            0.1223863735795021,
                                            -0.06956500560045242,
                                            -0.17059354484081268,
                                            -0.03302275389432907,
                                            -0.31177741289138794,
                                            0.1806834638118744,
                                            -0.21477241814136505,
                                            -0.13285645842552185,
                                            0.07485698163509369,
                                            0.3283097445964813,
                                            -0.23720520734786987,
                                            -0.0478271059691906,
                                            -0.22460055351257324,
                                            -0.1812225729227066,
                                            0.29477596282958984,
                                            -0.09152335673570633,
                                            0.17476703226566315,
                                            0.04852340370416641,
                                            0.24917355179786682,
                                            -0.03293469548225403,
                                            -0.18913209438323975,
                                            -0.09251883625984192,
                                            -0.3075704276561737,
                                            -0.058126579970121384,
                                            0.009799126535654068,
                                            -0.0910240188241005,
                                            0.2527022957801819,
                                            0.027608290314674377,
                                            -0.3562767505645752,
                                            0.17296414077281952,
                                            0.14903895556926727,
                                            0.11786594986915588,
                                            -0.06553993374109268,
                                            0.2040024995803833,
                                            0.4283609092235565,
                                            -0.3743249475955963,
                                            -0.07497914880514145,
                                            0.17045879364013672,
                                            0.3248288631439209,
                                            -0.30552181601524353,
                                            -0.19440075755119324,
                                            0.34467220306396484,
                                            -0.161608025431633,
                                            0.026211990043520927,
                                            0.10898332297801971,
                                            0.23339755833148956,
                                            -0.3120776414871216,
                                            -0.2712898850440979,
                                            -0.14025671780109406,
                                            -0.14597344398498535,
                                            -0.39611485600471497,
                                            0.004796670284122229,
                                            -0.266630083322525,
                                            0.04856014624238014,
                                            0.19661997258663177,
                                            0.005369395017623901,
                                            -0.3394186198711395,
                                            -0.20898373425006866,
                                            0.13804498314857483,
                                            -0.08051338791847229,
                                            -0.39795422554016113,
                                            -0.20293086767196655,
                                            0.2659430205821991,
                                            0.3346995413303375,
                                            -0.21811647713184357,
                                            -0.1538410484790802,
                                            0.14824317395687103,
                                            -0.1639128476381302,
                                            0.20932230353355408,
                                            -0.3560871183872223,
                                            -0.23981064558029175,
                                            0.2691260874271393,
                                            -0.138591468334198,
                                            -0.015982339158654213,
                                            -0.04612939804792404,
                                            0.19629184901714325,
                                            -0.08404139429330826,
                                            -0.17862698435783386,
                                            -0.11798343062400818,
                                            0.024666639044880867,
                                            0.19905692338943481,
                                            0.0630311593413353,
                                            -0.2671218514442444,
                                            0.10126110911369324,
                                            0.11864276975393295,
                                            -0.12405260652303696,
                                            -0.34160688519477844,
                                            -0.2501882314682007,
                                            0.03186565265059471,
                                            -0.367460697889328,
                                            -0.19331896305084229,
                                            0.10419973731040955,
                                            -0.20909595489501953,
                                            0.30470505356788635,
                                            -0.17048899829387665,
                                            0.1121750921010971,
                                            -0.1412719041109085,
                                            -0.05214978754520416,
                                            0.2179110050201416,
                                            0.23435626924037933,
                                            -0.05956904590129852,
                                            0.030019661411643028,
                                            0.368512898683548,
                                            0.19556063413619995,
                                            0.05431532859802246,
                                            0.025360262021422386,
                                            0.0010556677589192986,
                                            0.13705720007419586,
                                            0.25488969683647156,
                                            -0.22661720216274261,
                                            0.039173878729343414,
                                            -0.11078792065382004,
                                            -0.3666626811027527,
                                            -0.33106881380081177,
                                            0.029501626268029213,
                                            -0.06850528717041016,
                                            -0.18218161165714264,
                                            -0.17801474034786224,
                                            -0.06486731767654419,
                                            0.03926534578204155,
                                            0.07499568164348602,
                                            0.2576594948768616,
                                            0.02261112444102764,
                                            -0.3098848760128021,
                                            -0.10402095317840576,
                                            -0.01931801065802574,
                                            0.2990543246269226,
                                            0.10696697235107422,
                                            -0.07580029219388962,
                                            0.02777128852903843,
                                            0.010362430475652218,
                                            0.049863219261169434,
                                            0.17667506635189056,
                                            -0.27253270149230957,
                                            -0.09657728672027588,
                                            0.09349820017814636,
                                            0.02195081301033497,
                                            -0.2708861231803894,
                                            0.2209763526916504,
                                            0.2717132866382599,
                                            0.3862422704696655,
                                            0.18204540014266968,
                                            -0.4257749021053314,
                                            -0.18136802315711975,
                                            -0.05101267993450165,
                                            -0.29372352361679077,
                                            -0.010216065682470798,
                                            -0.36066120862960815,
                                            0.18481998145580292,
                                            -0.218059703707695,
                                            0.14866536855697632,
                                            -0.109041728079319,
                                            0.2557436525821686,
                                            0.23930257558822632,
                                            0.26047220826148987,
                                            0.1758718341588974,
                                            0.06873990595340729
                                        ],
                                        "dense_Dense2/bias": [
                                            0,
                                            0,
                                            0,
                                            0,
                                            0,
                                            0,
                                            0,
                                            0,
                                            0,
                                            0
                                        ]
                                    }
                                }
                            }
                        }
                    ]
                }
            ]
        },
        {
            "language": "markdown",
            "source": [
                "# Model Summary"
            ],
            "outputs": []
        },
        {
            "language": "javascript",
            "source": [
                "const model = tf.sequential({\n    layers: [\n        tf.layers.dense({ inputShape: [784], units: 32, activation: 'relu' }),\n        tf.layers.dense({ units: 10, activation: 'softmax' }),\n    ]\n});\n\nconst surface = { name: 'Model Summary', tab: 'Model Inspection' };\ntfvis.show.modelSummary(surface, model);\n"
            ],
            "outputs": [
                {
                    "items": [
                        {
                            "mime": "application/vnd.tfjsvis.modelsummary",
                            "value": {
                                "type": "tensorFlowVis",
                                "request": "modelsummary",
                                "requestId": "x5d2750ea93124d30975353cbd96de05c",
                                "container": {
                                    "name": "Model Summary",
                                    "tab": "Model Inspection"
                                },
                                "model": {
                                    "layers": [
                                        {
                                            "outputShape": [
                                                null,
                                                32
                                            ],
                                            "name": "dense_Dense3",
                                            "parameters": 25120
                                        },
                                        {
                                            "outputShape": [
                                                null,
                                                10
                                            ],
                                            "name": "dense_Dense4",
                                            "parameters": 330
                                        }
                                    ]
                                }
                            }
                        }
                    ]
                }
            ]
        },
        {
            "language": "markdown",
            "source": [
                "# History "
            ],
            "outputs": []
        },
        {
            "language": "javascript",
            "source": [
                "const model = tf.sequential({\n    layers: [\n        tf.layers.dense({ inputShape: [784], units: 32, activation: 'relu' }),\n        tf.layers.dense({ units: 10, activation: 'softmax' }),\n    ]\n});\n\nmodel.compile({\n    optimizer: 'sgd',\n    loss: 'categoricalCrossentropy',\n    metrics: ['accuracy']\n});\n\nconst data = tf.randomNormal([100, 784]);\nconst labels = tf.randomUniform([100, 10]);\n\nfunction onBatchEnd(batch, logs) {\n    console.log('Accuracy', logs.acc);\n}\n\nconst surface = { name: 'show.history', tab: 'Training' };\n// Train for 5 epochs with batch size of 32.\nconst history = await model.fit(data, labels, {\n    epochs: 5,\n    batchSize: 32\n});\n\ntfvis.show.history(surface, history, ['loss', 'acc']);\n"
            ],
            "outputs": [
                {
                    "items": [
                        {
                            "mime": "application/vnd.code.notebook.stdout",
                            "value": [
                                "Epoch 1 / 5",
                                ""
                            ]
                        }
                    ]
                },
                {
                    "items": [
                        {
                            "mime": "application/vnd.code.notebook.stderr",
                            "value": [
                                "",
                                ""
                            ]
                        }
                    ]
                },
                {
                    "items": [
                        {
                            "mime": "application/vnd.code.notebook.stdout",
                            "value": [
                                "65ms 651us/step - acc=0.0800 loss=12.85 ",
                                "Epoch 2 / 5",
                                ""
                            ]
                        }
                    ]
                },
                {
                    "items": [
                        {
                            "mime": "application/vnd.code.notebook.stderr",
                            "value": [
                                "",
                                ""
                            ]
                        }
                    ]
                },
                {
                    "items": [
                        {
                            "mime": "application/vnd.code.notebook.stdout",
                            "value": [
                                "20ms 205us/step - acc=0.0700 loss=12.24 ",
                                "Epoch 3 / 5",
                                ""
                            ]
                        }
                    ]
                },
                {
                    "items": [
                        {
                            "mime": "application/vnd.code.notebook.stderr",
                            "value": [
                                "",
                                ""
                            ]
                        }
                    ]
                },
                {
                    "items": [
                        {
                            "mime": "application/vnd.code.notebook.stdout",
                            "value": [
                                "25ms 252us/step - acc=0.140 loss=11.91 ",
                                "Epoch 4 / 5",
                                ""
                            ]
                        }
                    ]
                },
                {
                    "items": [
                        {
                            "mime": "application/vnd.code.notebook.stderr",
                            "value": [
                                "",
                                ""
                            ]
                        }
                    ]
                },
                {
                    "items": [
                        {
                            "mime": "application/vnd.code.notebook.stdout",
                            "value": [
                                "20ms 204us/step - acc=0.190 loss=11.68 ",
                                "Epoch 5 / 5",
                                ""
                            ]
                        }
                    ]
                },
                {
                    "items": [
                        {
                            "mime": "application/vnd.code.notebook.stderr",
                            "value": [
                                "",
                                ""
                            ]
                        }
                    ]
                },
                {
                    "items": [
                        {
                            "mime": "application/vnd.code.notebook.stdout",
                            "value": [
                                "24ms 236us/step - acc=0.200 loss=11.51 ",
                                ""
                            ]
                        }
                    ]
                },
                {
                    "items": [
                        {
                            "mime": "application/vnd.tfjsvis.history",
                            "value": {
                                "type": "tensorFlowVis",
                                "request": "history",
                                "requestId": "xf5601c8fe7ed4d0bac7930839ca1a95c",
                                "container": {
                                    "name": "show.history",
                                    "tab": "Training"
                                },
                                "history": {
                                    "validationData": null,
                                    "params": {
                                        "epochs": 5,
                                        "initialEpoch": 0,
                                        "samples": 100,
                                        "steps": null,
                                        "batchSize": 32,
                                        "verbose": 1,
                                        "doValidation": false,
                                        "metrics": [
                                            "loss",
                                            "acc"
                                        ]
                                    },
                                    "epoch": [
                                        0,
                                        1,
                                        2,
                                        3,
                                        4
                                    ],
                                    "history": {
                                        "loss": [
                                            12.847888946533203,
                                            12.240615844726562,
                                            11.90847110748291,
                                            11.683565139770508,
                                            11.51425838470459
                                        ],
                                        "acc": [
                                            0.07999999821186066,
                                            0.07000000029802322,
                                            0.14000000059604645,
                                            0.1899999976158142,
                                            0.19999998807907104
                                        ]
                                    }
                                },
                                "metrics": [
                                    "loss",
                                    "acc"
                                ]
                            }
                        }
                    ]
                }
            ]
        },
        {
            "language": "javascript",
            "source": [
                "const model = tf.sequential({\n    layers: [\n        tf.layers.dense({ inputShape: [784], units: 32, activation: 'relu' }),\n        tf.layers.dense({ units: 10, activation: 'softmax' }),\n    ]\n});\n\nmodel.compile({\n    optimizer: 'sgd',\n    loss: 'categoricalCrossentropy',\n    metrics: ['accuracy']\n});\n\nconst data = tf.randomNormal([100, 784]);\nconst labels = tf.randomUniform([100, 10]);\n\nfunction onBatchEnd(batch, logs) {\n    console.log('Accuracy', logs.acc);\n}\n\nconst surface = { name: 'show.history live', tab: 'Training' };\n// Train for 5 epochs with batch size of 32.\nconst history = [];\nvoid await model.fit(data, labels, {\n    epochs: 5,\n    batchSize: 32,\n    callbacks: {\n        onEpochEnd: (epoch, log) => {\n            history.push(log);\n            tfvis.show.history(surface, history, ['loss', 'acc']);\n        }\n    }\n});\n"
            ],
            "outputs": [
                {
                    "items": [
                        {
                            "mime": "application/vnd.code.notebook.stdout",
                            "value": [
                                "Epoch 1 / 5",
                                ""
                            ]
                        }
                    ]
                },
                {
                    "items": [
                        {
                            "mime": "application/vnd.code.notebook.stderr",
                            "value": [
                                "",
                                ""
                            ]
                        }
                    ]
                },
                {
                    "items": [
                        {
                            "mime": "application/vnd.code.notebook.stdout",
                            "value": [
                                "55ms 552us/step - acc=0.110 loss=13.15 ",
                                ""
                            ]
                        }
                    ]
                },
                {
                    "items": [
                        {
                            "mime": "application/vnd.tfjsvis.history",
                            "value": {
                                "type": "tensorFlowVis",
                                "request": "history",
                                "requestId": "x2ea9985811ac493a81c7832d34155c88",
                                "container": {
                                    "name": "show.history live",
                                    "tab": "Training"
                                },
                                "history": [
                                    {
                                        "loss": 13.154236793518066,
                                        "acc": 0.10999999940395355
                                    }
                                ],
                                "metrics": [
                                    "loss",
                                    "acc"
                                ]
                            }
                        }
                    ]
                },
                {
                    "items": [
                        {
                            "mime": "application/vnd.code.notebook.stdout",
                            "value": [
                                "Epoch 2 / 5",
                                ""
                            ]
                        }
                    ]
                },
                {
                    "items": [
                        {
                            "mime": "application/vnd.code.notebook.stderr",
                            "value": [
                                "",
                                ""
                            ]
                        }
                    ]
                },
                {
                    "items": [
                        {
                            "mime": "application/vnd.code.notebook.stdout",
                            "value": [
                                "34ms 341us/step - acc=0.120 loss=12.61 ",
                                "Epoch 3 / 5",
                                ""
                            ]
                        }
                    ]
                },
                {
                    "items": [
                        {
                            "mime": "application/vnd.code.notebook.stderr",
                            "value": [
                                "",
                                ""
                            ]
                        }
                    ]
                },
                {
                    "items": [
                        {
                            "mime": "application/vnd.code.notebook.stdout",
                            "value": [
                                "45ms 446us/step - acc=0.130 loss=12.25 ",
                                "Epoch 4 / 5",
                                ""
                            ]
                        }
                    ]
                },
                {
                    "items": [
                        {
                            "mime": "application/vnd.code.notebook.stderr",
                            "value": [
                                "",
                                ""
                            ]
                        }
                    ]
                },
                {
                    "items": [
                        {
                            "mime": "application/vnd.code.notebook.stdout",
                            "value": [
                                "23ms 230us/step - acc=0.190 loss=12.01 ",
                                "Epoch 5 / 5",
                                ""
                            ]
                        }
                    ]
                },
                {
                    "items": [
                        {
                            "mime": "application/vnd.code.notebook.stderr",
                            "value": [
                                "",
                                ""
                            ]
                        }
                    ]
                },
                {
                    "items": [
                        {
                            "mime": "application/vnd.code.notebook.stdout",
                            "value": [
                                "42ms 419us/step - acc=0.240 loss=11.81 ",
                                ""
                            ]
                        }
                    ]
                }
            ]
        },
        {
            "language": "javascript",
            "source": [
                "const model = tf.sequential({\n    layers: [\n        tf.layers.dense({ inputShape: [784], units: 32, activation: 'relu' }),\n        tf.layers.dense({ units: 10, activation: 'softmax' }),\n    ]\n});\n\nmodel.compile({\n    optimizer: 'sgd',\n    loss: 'categoricalCrossentropy',\n    metrics: ['accuracy']\n});\n\nconst data = tf.randomNormal([100, 784]);\nconst labels = tf.randomUniform([100, 10]);\n\nfunction onBatchEnd(batch, logs) {\n    console.log('Accuracy', logs.acc);\n}\n\nconst surface = { name: 'show.fitCallbacks', tab: 'Training' };\n// Train for 5 epochs with batch size of 32.\nvoid await model.fit(data, labels, {\n    epochs: 5,\n    batchSize: 32,\n    callbacks: tfvis.show.fitCallbacks(surface, ['loss', 'acc']),\n});"
            ],
            "outputs": [
                {
                    "items": [
                        {
                            "mime": "application/vnd.code.notebook.stdout",
                            "value": [
                                "Epoch 1 / 5",
                                ""
                            ]
                        }
                    ]
                },
                {
                    "items": [
                        {
                            "mime": "application/vnd.code.notebook.stderr",
                            "value": [
                                "",
                                ""
                            ]
                        }
                    ]
                },
                {
                    "items": [
                        {
                            "mime": "application/vnd.code.notebook.stdout",
                            "value": [
                                "38ms 385us/step - acc=0.120 loss=13.19 ",
                                "Epoch 2 / 5",
                                ""
                            ]
                        }
                    ]
                },
                {
                    "items": [
                        {
                            "mime": "application/vnd.code.notebook.stderr",
                            "value": [
                                "",
                                ""
                            ]
                        }
                    ]
                },
                {
                    "items": [
                        {
                            "mime": "application/vnd.code.notebook.stdout",
                            "value": [
                                "22ms 219us/step - acc=0.130 loss=12.50 ",
                                "Epoch 3 / 5",
                                ""
                            ]
                        }
                    ]
                },
                {
                    "items": [
                        {
                            "mime": "application/vnd.code.notebook.stderr",
                            "value": [
                                "",
                                ""
                            ]
                        }
                    ]
                },
                {
                    "items": [
                        {
                            "mime": "application/vnd.code.notebook.stdout",
                            "value": [
                                "29ms 287us/step - acc=0.160 loss=12.07 ",
                                "Epoch 4 / 5",
                                ""
                            ]
                        }
                    ]
                },
                {
                    "items": [
                        {
                            "mime": "application/vnd.code.notebook.stderr",
                            "value": [
                                "",
                                ""
                            ]
                        }
                    ]
                },
                {
                    "items": [
                        {
                            "mime": "application/vnd.code.notebook.stdout",
                            "value": [
                                "26ms 256us/step - acc=0.180 loss=11.79 ",
                                "Epoch 5 / 5",
                                ""
                            ]
                        }
                    ]
                },
                {
                    "items": [
                        {
                            "mime": "application/vnd.code.notebook.stderr",
                            "value": [
                                "",
                                ""
                            ]
                        }
                    ]
                },
                {
                    "items": [
                        {
                            "mime": "application/vnd.code.notebook.stdout",
                            "value": [
                                "18ms 185us/step - acc=0.190 loss=11.59 ",
                                ""
                            ]
                        }
                    ]
                }
            ]
        },
        {
            "language": "markdown",
            "source": [
                "# Table"
            ],
            "outputs": []
        },
        {
            "language": "javascript",
            "source": [
                "const headers = [\n    'Col 1',\n    'Col 2',\n    'Col 3',\n];\n\nconst values = [\n    [1, 2, 3],\n    ['4', '5', '6'],\n    ['<strong>7</strong>', true, false],\n];\n\nconst surface = { name: 'Table', tab: 'Charts' };\ntfvis.render.table(surface, { headers, values });\n"
            ],
            "outputs": [
                {
                    "items": [
                        {
                            "mime": "application/vnd.tfjsvis.table",
                            "value": {
                                "type": "tensorFlowVis",
                                "request": "table",
                                "requestId": "xabc37c1e5aec49c08dab5bad3ef02909",
                                "container": {
                                    "name": "Table",
                                    "tab": "Charts"
                                },
                                "data": {
                                    "headers": [
                                        "Col 1",
                                        "Col 2",
                                        "Col 3"
                                    ],
                                    "values": [
                                        [
                                            1,
                                            2,
                                            3
                                        ],
                                        [
                                            "4",
                                            "5",
                                            "6"
                                        ],
                                        [
                                            "<strong>7</strong>",
                                            true,
                                            false
                                        ]
                                    ]
                                }
                            }
                        }
                    ]
                }
            ]
        },
        {
            "language": "markdown",
            "source": [
                "# Scatter Plot"
            ],
            "outputs": []
        },
        {
            "language": "javascript",
            "source": [
                "const series1 = Array(100).fill(0)\n    .map(y => Math.random() * 100 - (Math.random() * 50))\n    .map((y, x) => ({ x, y, }));\n\nconst series2 = Array(100).fill(0)\n    .map(y => Math.random() * 100 - (Math.random() * 150))\n    .map((y, x) => ({ x, y, }));\n\nconst series = ['First', 'Second'];\nconst data = { values: [series1, series2], series }\nconst surface = { name: 'Scatterplot', tab: 'Charts' };\ntfvis.render.scatterplot(surface, data);\n"
            ],
            "outputs": [
                {
                    "items": [
                        {
                            "mime": "application/vnd.tfjsvis.scatterplot",
                            "value": {
                                "type": "tensorFlowVis",
                                "request": "scatterplot",
                                "requestId": "x9a1c5d1ddae24e4ca34790392ceb8311",
                                "container": {
                                    "name": "Scatterplot",
                                    "tab": "Charts"
                                },
                                "data": {
                                    "values": [
                                        [
                                            {
                                                "x": 0,
                                                "y": -13.140656432586896
                                            },
                                            {
                                                "x": 1,
                                                "y": -8.017704913544698
                                            },
                                            {
                                                "x": 2,
                                                "y": -18.99790651690597
                                            },
                                            {
                                                "x": 3,
                                                "y": 50.09265037764551
                                            },
                                            {
                                                "x": 4,
                                                "y": -26.968277165077335
                                            },
                                            {
                                                "x": 5,
                                                "y": 27.87144077270885
                                            },
                                            {
                                                "x": 6,
                                                "y": 71.02688965087492
                                            },
                                            {
                                                "x": 7,
                                                "y": 3.125323693798043
                                            },
                                            {
                                                "x": 8,
                                                "y": 62.93424282809763
                                            },
                                            {
                                                "x": 9,
                                                "y": 10.362605042061404
                                            },
                                            {
                                                "x": 10,
                                                "y": -22.772552094095744
                                            },
                                            {
                                                "x": 11,
                                                "y": -12.966964235807744
                                            },
                                            {
                                                "x": 12,
                                                "y": -1.463109656596174
                                            },
                                            {
                                                "x": 13,
                                                "y": 53.36936070912818
                                            },
                                            {
                                                "x": 14,
                                                "y": 38.70561371278932
                                            },
                                            {
                                                "x": 15,
                                                "y": 69.0258678204966
                                            },
                                            {
                                                "x": 16,
                                                "y": -23.15481138274663
                                            },
                                            {
                                                "x": 17,
                                                "y": 43.183225760710286
                                            },
                                            {
                                                "x": 18,
                                                "y": 26.111746059748924
                                            },
                                            {
                                                "x": 19,
                                                "y": -2.3681591775771977
                                            },
                                            {
                                                "x": 20,
                                                "y": 67.73517268619206
                                            },
                                            {
                                                "x": 21,
                                                "y": 1.3893119235180258
                                            },
                                            {
                                                "x": 22,
                                                "y": 15.559345238533227
                                            },
                                            {
                                                "x": 23,
                                                "y": 16.423117401726174
                                            },
                                            {
                                                "x": 24,
                                                "y": -15.984910536725884
                                            },
                                            {
                                                "x": 25,
                                                "y": 3.7403267093420354
                                            },
                                            {
                                                "x": 26,
                                                "y": 48.86674719431649
                                            },
                                            {
                                                "x": 27,
                                                "y": -7.939795802828741
                                            },
                                            {
                                                "x": 28,
                                                "y": 18.412736806041494
                                            },
                                            {
                                                "x": 29,
                                                "y": 54.03563057966431
                                            },
                                            {
                                                "x": 30,
                                                "y": 35.34714979610564
                                            },
                                            {
                                                "x": 31,
                                                "y": -35.418594673997355
                                            },
                                            {
                                                "x": 32,
                                                "y": -28.36492822684785
                                            },
                                            {
                                                "x": 33,
                                                "y": 49.37510125858889
                                            },
                                            {
                                                "x": 34,
                                                "y": -10.364940304590153
                                            },
                                            {
                                                "x": 35,
                                                "y": 57.529387909356984
                                            },
                                            {
                                                "x": 36,
                                                "y": 44.28359071156198
                                            },
                                            {
                                                "x": 37,
                                                "y": -21.631314271254
                                            },
                                            {
                                                "x": 38,
                                                "y": 87.2084801514001
                                            },
                                            {
                                                "x": 39,
                                                "y": 41.66754892918617
                                            },
                                            {
                                                "x": 40,
                                                "y": 23.257627888172884
                                            },
                                            {
                                                "x": 41,
                                                "y": 2.821288603215344
                                            },
                                            {
                                                "x": 42,
                                                "y": 41.83747025960319
                                            },
                                            {
                                                "x": 43,
                                                "y": 58.33372709512933
                                            },
                                            {
                                                "x": 44,
                                                "y": 55.58658608188385
                                            },
                                            {
                                                "x": 45,
                                                "y": 62.47985288123018
                                            },
                                            {
                                                "x": 46,
                                                "y": 45.60420831010353
                                            },
                                            {
                                                "x": 47,
                                                "y": -14.857815927317596
                                            },
                                            {
                                                "x": 48,
                                                "y": 23.260024499144535
                                            },
                                            {
                                                "x": 49,
                                                "y": 54.43704671009321
                                            },
                                            {
                                                "x": 50,
                                                "y": 61.666637112931056
                                            },
                                            {
                                                "x": 51,
                                                "y": -19.30639289524654
                                            },
                                            {
                                                "x": 52,
                                                "y": 65.72142983629122
                                            },
                                            {
                                                "x": 53,
                                                "y": 34.3904476308227
                                            },
                                            {
                                                "x": 54,
                                                "y": 30.09028379542025
                                            },
                                            {
                                                "x": 55,
                                                "y": -8.746515937794042
                                            },
                                            {
                                                "x": 56,
                                                "y": 22.69755933047373
                                            },
                                            {
                                                "x": 57,
                                                "y": 55.80907070704024
                                            },
                                            {
                                                "x": 58,
                                                "y": 67.05093688226685
                                            },
                                            {
                                                "x": 59,
                                                "y": 0.10504737607717374
                                            },
                                            {
                                                "x": 60,
                                                "y": -24.66986049157834
                                            },
                                            {
                                                "x": 61,
                                                "y": 75.67635186475735
                                            },
                                            {
                                                "x": 62,
                                                "y": 31.884631979671262
                                            },
                                            {
                                                "x": 63,
                                                "y": 87.71599233899019
                                            },
                                            {
                                                "x": 64,
                                                "y": 23.630499638977852
                                            },
                                            {
                                                "x": 65,
                                                "y": 32.906894480962066
                                            },
                                            {
                                                "x": 66,
                                                "y": 16.03163888815822
                                            },
                                            {
                                                "x": 67,
                                                "y": 32.129284408546894
                                            },
                                            {
                                                "x": 68,
                                                "y": 66.76844435234933
                                            },
                                            {
                                                "x": 69,
                                                "y": 3.551602409916633
                                            },
                                            {
                                                "x": 70,
                                                "y": -22.225124111464314
                                            },
                                            {
                                                "x": 71,
                                                "y": 4.830009048928764
                                            },
                                            {
                                                "x": 72,
                                                "y": 4.679435019764888
                                            },
                                            {
                                                "x": 73,
                                                "y": -14.766743428231525
                                            },
                                            {
                                                "x": 74,
                                                "y": 81.48857717407714
                                            },
                                            {
                                                "x": 75,
                                                "y": -13.726823024356573
                                            },
                                            {
                                                "x": 76,
                                                "y": 7.860806191324075
                                            },
                                            {
                                                "x": 77,
                                                "y": 65.4444445313928
                                            },
                                            {
                                                "x": 78,
                                                "y": 3.529001380841734
                                            },
                                            {
                                                "x": 79,
                                                "y": 61.2365377619232
                                            },
                                            {
                                                "x": 80,
                                                "y": 9.143645795381552
                                            },
                                            {
                                                "x": 81,
                                                "y": 3.981690468533742
                                            },
                                            {
                                                "x": 82,
                                                "y": 90.74746316849664
                                            },
                                            {
                                                "x": 83,
                                                "y": 93.23559148419545
                                            },
                                            {
                                                "x": 84,
                                                "y": 1.7682935317897375
                                            },
                                            {
                                                "x": 85,
                                                "y": 13.216805739865656
                                            },
                                            {
                                                "x": 86,
                                                "y": 43.50105283850394
                                            },
                                            {
                                                "x": 87,
                                                "y": -1.72642619009682
                                            },
                                            {
                                                "x": 88,
                                                "y": -21.54725845437192
                                            },
                                            {
                                                "x": 89,
                                                "y": 49.97174931573756
                                            },
                                            {
                                                "x": 90,
                                                "y": 24.072481932173204
                                            },
                                            {
                                                "x": 91,
                                                "y": 24.150072540240718
                                            },
                                            {
                                                "x": 92,
                                                "y": 27.956375418120313
                                            },
                                            {
                                                "x": 93,
                                                "y": -7.4944652080914835
                                            },
                                            {
                                                "x": 94,
                                                "y": 69.65550852260378
                                            },
                                            {
                                                "x": 95,
                                                "y": 39.403848655343914
                                            },
                                            {
                                                "x": 96,
                                                "y": 57.3908323605044
                                            },
                                            {
                                                "x": 97,
                                                "y": -11.164320510305272
                                            },
                                            {
                                                "x": 98,
                                                "y": -31.054561230346152
                                            },
                                            {
                                                "x": 99,
                                                "y": -1.77525650108851
                                            }
                                        ],
                                        [
                                            {
                                                "x": 0,
                                                "y": -9.266423413661817
                                            },
                                            {
                                                "x": 1,
                                                "y": -26.10447307879665
                                            },
                                            {
                                                "x": 2,
                                                "y": 21.11520649300656
                                            },
                                            {
                                                "x": 3,
                                                "y": 18.230822294862
                                            },
                                            {
                                                "x": 4,
                                                "y": 27.421984809704682
                                            },
                                            {
                                                "x": 5,
                                                "y": -11.26283572559149
                                            },
                                            {
                                                "x": 6,
                                                "y": 32.040849270642205
                                            },
                                            {
                                                "x": 7,
                                                "y": -87.15516396013447
                                            },
                                            {
                                                "x": 8,
                                                "y": 44.60082360752768
                                            },
                                            {
                                                "x": 9,
                                                "y": -108.965169570036
                                            },
                                            {
                                                "x": 10,
                                                "y": -8.285164382352143
                                            },
                                            {
                                                "x": 11,
                                                "y": 4.983365318760427
                                            },
                                            {
                                                "x": 12,
                                                "y": 59.89969393476264
                                            },
                                            {
                                                "x": 13,
                                                "y": -85.86792275450657
                                            },
                                            {
                                                "x": 14,
                                                "y": -17.948055220685077
                                            },
                                            {
                                                "x": 15,
                                                "y": -11.12240766042476
                                            },
                                            {
                                                "x": 16,
                                                "y": 37.45515996652348
                                            },
                                            {
                                                "x": 17,
                                                "y": -54.42672613793363
                                            },
                                            {
                                                "x": 18,
                                                "y": -58.58475033475102
                                            },
                                            {
                                                "x": 19,
                                                "y": 89.79699675172076
                                            },
                                            {
                                                "x": 20,
                                                "y": -78.79067051758562
                                            },
                                            {
                                                "x": 21,
                                                "y": 70.06156316482787
                                            },
                                            {
                                                "x": 22,
                                                "y": -34.49459554136309
                                            },
                                            {
                                                "x": 23,
                                                "y": -59.4517412231358
                                            },
                                            {
                                                "x": 24,
                                                "y": 56.43326504328249
                                            },
                                            {
                                                "x": 25,
                                                "y": -71.15796853370706
                                            },
                                            {
                                                "x": 26,
                                                "y": -110.37645207022163
                                            },
                                            {
                                                "x": 27,
                                                "y": -89.41079668224103
                                            },
                                            {
                                                "x": 28,
                                                "y": -62.242875560678655
                                            },
                                            {
                                                "x": 29,
                                                "y": -27.641288865452548
                                            },
                                            {
                                                "x": 30,
                                                "y": -9.112454189576553
                                            },
                                            {
                                                "x": 31,
                                                "y": 14.137679379915909
                                            },
                                            {
                                                "x": 32,
                                                "y": 78.10368495723468
                                            },
                                            {
                                                "x": 33,
                                                "y": 41.845484908053905
                                            },
                                            {
                                                "x": 34,
                                                "y": -61.30580789188211
                                            },
                                            {
                                                "x": 35,
                                                "y": 60.868770918716706
                                            },
                                            {
                                                "x": 36,
                                                "y": -70.26455713292779
                                            },
                                            {
                                                "x": 37,
                                                "y": 24.42415578305323
                                            },
                                            {
                                                "x": 38,
                                                "y": -38.426016510227015
                                            },
                                            {
                                                "x": 39,
                                                "y": -92.60015300259562
                                            },
                                            {
                                                "x": 40,
                                                "y": 8.582170731148732
                                            },
                                            {
                                                "x": 41,
                                                "y": -53.96875679729643
                                            },
                                            {
                                                "x": 42,
                                                "y": -75.05634006430827
                                            },
                                            {
                                                "x": 43,
                                                "y": 16.940155835298583
                                            },
                                            {
                                                "x": 44,
                                                "y": -74.51366898010777
                                            },
                                            {
                                                "x": 45,
                                                "y": -101.25593606627854
                                            },
                                            {
                                                "x": 46,
                                                "y": -28.546467445992263
                                            },
                                            {
                                                "x": 47,
                                                "y": 17.615843524719356
                                            },
                                            {
                                                "x": 48,
                                                "y": -60.63184381566657
                                            },
                                            {
                                                "x": 49,
                                                "y": -110.9005234391076
                                            },
                                            {
                                                "x": 50,
                                                "y": 55.36672022895434
                                            },
                                            {
                                                "x": 51,
                                                "y": -20.052812065735274
                                            },
                                            {
                                                "x": 52,
                                                "y": -52.20422611568134
                                            },
                                            {
                                                "x": 53,
                                                "y": 11.292876733212161
                                            },
                                            {
                                                "x": 54,
                                                "y": -19.722246218116332
                                            },
                                            {
                                                "x": 55,
                                                "y": 75.29289719428431
                                            },
                                            {
                                                "x": 56,
                                                "y": 16.464356885765895
                                            },
                                            {
                                                "x": 57,
                                                "y": 4.0387808726488075
                                            },
                                            {
                                                "x": 58,
                                                "y": -40.62009053512914
                                            },
                                            {
                                                "x": 59,
                                                "y": -21.434734826282657
                                            },
                                            {
                                                "x": 60,
                                                "y": -7.750235442475912
                                            },
                                            {
                                                "x": 61,
                                                "y": 33.36716831650183
                                            },
                                            {
                                                "x": 62,
                                                "y": -106.26496442402693
                                            },
                                            {
                                                "x": 63,
                                                "y": -43.275885601531336
                                            },
                                            {
                                                "x": 64,
                                                "y": -70.34071098457471
                                            },
                                            {
                                                "x": 65,
                                                "y": -57.9231066101204
                                            },
                                            {
                                                "x": 66,
                                                "y": -52.608234608291355
                                            },
                                            {
                                                "x": 67,
                                                "y": -43.392096099919655
                                            },
                                            {
                                                "x": 68,
                                                "y": -80.57210744362455
                                            },
                                            {
                                                "x": 69,
                                                "y": -22.03370467102451
                                            },
                                            {
                                                "x": 70,
                                                "y": 32.93758566902793
                                            },
                                            {
                                                "x": 71,
                                                "y": 84.30152095584666
                                            },
                                            {
                                                "x": 72,
                                                "y": -64.20144191039566
                                            },
                                            {
                                                "x": 73,
                                                "y": -66.88641779508762
                                            },
                                            {
                                                "x": 74,
                                                "y": 24.96337469068247
                                            },
                                            {
                                                "x": 75,
                                                "y": -45.440350941563445
                                            },
                                            {
                                                "x": 76,
                                                "y": 6.945838043332785
                                            },
                                            {
                                                "x": 77,
                                                "y": 53.48093230690731
                                            },
                                            {
                                                "x": 78,
                                                "y": 46.87459793543348
                                            },
                                            {
                                                "x": 79,
                                                "y": -32.743020863420355
                                            },
                                            {
                                                "x": 80,
                                                "y": -4.42177935339917
                                            },
                                            {
                                                "x": 81,
                                                "y": -62.079323754557564
                                            },
                                            {
                                                "x": 82,
                                                "y": 79.9989237169022
                                            },
                                            {
                                                "x": 83,
                                                "y": -12.981484934810197
                                            },
                                            {
                                                "x": 84,
                                                "y": 43.97216039790973
                                            },
                                            {
                                                "x": 85,
                                                "y": -114.79491674914017
                                            },
                                            {
                                                "x": 86,
                                                "y": -110.89180497472114
                                            },
                                            {
                                                "x": 87,
                                                "y": -106.77001157411523
                                            },
                                            {
                                                "x": 88,
                                                "y": -14.825834683632245
                                            },
                                            {
                                                "x": 89,
                                                "y": -64.97891424991656
                                            },
                                            {
                                                "x": 90,
                                                "y": -35.119405061368504
                                            },
                                            {
                                                "x": 91,
                                                "y": -38.99783491597498
                                            },
                                            {
                                                "x": 92,
                                                "y": -110.38429562327907
                                            },
                                            {
